digraph Tree {
node [shape=box] ;
0 [label="X[5] <= 24.5\nmse = 5505128298778.452\nsamples = 141712\nvalue = 1474172.07"] ;
1 [label="X[5] <= 11.5\nmse = 3185293502842.04\nsamples = 138267\nvalue = 1283962.221"] ;
0 -> 1 [labeldistance=2.5, labelangle=45, headlabel="True"] ;
2 [label="X[0] <= 0.162\nmse = 2647961550278.358\nsamples = 127090\nvalue = 1155499.297"] ;
1 -> 2 ;
3 [label="X[7] <= 0.596\nmse = 3550799150304.626\nsamples = 24575\nvalue = 1767364.59"] ;
2 -> 3 ;
4 [label="X[0] <= 0.162\nmse = 2863029089261.242\nsamples = 23372\nvalue = 1678357.327"] ;
3 -> 4 ;
5 [label="mse = 2794080243087.502\nsamples = 23366\nvalue = 1674127.775"] ;
4 -> 5 ;
6 [label="mse = 0.0\nsamples = 6\nvalue = 18149640.0"] ;
4 -> 6 ;
7 [label="X[6] <= 2.5\nmse = 13768670306919.406\nsamples = 1203\nvalue = 3496606.284"] ;
3 -> 7 ;
8 [label="mse = 8784335216744.477\nsamples = 1123\nvalue = 3158516.046"] ;
7 -> 8 ;
9 [label="mse = 59607754802406.0\nsamples = 80\nvalue = 8242548.0"] ;
7 -> 9 ;
10 [label="X[7] <= 0.083\nmse = 2320271722348.952\nsamples = 102515\nvalue = 1008822.327"] ;
2 -> 10 ;
11 [label="X[3] <= 0.5\nmse = 848345020025.308\nsamples = 60041\nvalue = 800488.466"] ;
10 -> 11 ;
12 [label="mse = 477992626749.628\nsamples = 35120\nvalue = 645046.869"] ;
11 -> 12 ;
13 [label="mse = 1288229044326.455\nsamples = 24921\nvalue = 1019545.039"] ;
11 -> 13 ;
14 [label="X[2] <= 0.5\nmse = 4252894566197.79\nsamples = 42474\nvalue = 1303321.865"] ;
10 -> 14 ;
15 [label="mse = 710444355660.635\nsamples = 6365\nvalue = 794252.852"] ;
14 -> 15 ;
16 [label="mse = 4823595438735.35\nsamples = 36109\nvalue = 1393056.398"] ;
14 -> 16 ;
17 [label="X[7] <= 0.596\nmse = 6973798771607.018\nsamples = 11177\nvalue = 2744671.989"] ;
1 -> 17 ;
18 [label="X[1] <= 0.562\nmse = 5648578976825.501\nsamples = 10289\nvalue = 2532089.204"] ;
17 -> 18 ;
19 [label="X[5] <= 18.5\nmse = 4574113768894.93\nsamples = 10143\nvalue = 2444494.777"] ;
18 -> 19 ;
20 [label="mse = 3191253166543.848\nsamples = 7952\nvalue = 2176529.095"] ;
19 -> 20 ;
21 [label="mse = 8386588677383.951\nsamples = 2191\nvalue = 3417047.54"] ;
19 -> 21 ;
22 [label="X[3] <= 1.5\nmse = 42729175706864.28\nsamples = 146\nvalue = 8617502.055"] ;
18 -> 22 ;
23 [label="mse = 39464643559399.67\nsamples = 76\nvalue = 11596437.632"] ;
22 -> 23 ;
24 [label="mse = 26178312984247.84\nsamples = 70\nvalue = 5383229.143"] ;
22 -> 24 ;
25 [label="X[1] <= 0.062\nmse = 15738082083440.809\nsamples = 888\nvalue = 5207807.432"] ;
17 -> 25 ;
26 [label="X[8] <= 0.613\nmse = 35336511505498.39\nsamples = 63\nvalue = 10788053.333"] ;
25 -> 26 ;
27 [label="mse = 33138380286424.67\nsamples = 54\nvalue = 9774435.556"] ;
26 -> 27 ;
28 [label="mse = 5373616844000.0\nsamples = 9\nvalue = 16869760.0"] ;
26 -> 28 ;
29 [label="X[1] <= 0.312\nmse = 11681991492101.629\nsamples = 825\nvalue = 4781679.564"] ;
25 -> 29 ;
30 [label="mse = 2247044093171.613\nsamples = 363\nvalue = 3381684.298"] ;
29 -> 30 ;
31 [label="mse = 16345183045774.934\nsamples = 462\nvalue = 5881675.844"] ;
29 -> 31 ;
32 [label="X[5] <= 55.5\nmse = 38880215613967.67\nsamples = 3445\nvalue = 9108350.647"] ;
0 -> 32 [labeldistance=2.5, labelangle=-45, headlabel="False"] ;
33 [label="X[3] <= 6.5\nmse = 24453839843414.07\nsamples = 2838\nvalue = 7395781.987"] ;
32 -> 33 ;
34 [label="X[1] <= 0.562\nmse = 23702374418544.08\nsamples = 2059\nvalue = 8883130.898"] ;
33 -> 34 ;
35 [label="X[5] <= 35.5\nmse = 20303441303111.773\nsamples = 1720\nvalue = 8121400.779"] ;
34 -> 35 ;
36 [label="mse = 16030181241860.422\nsamples = 1087\nvalue = 6863348.28"] ;
35 -> 36 ;
37 [label="mse = 20256607982412.97\nsamples = 633\nvalue = 10281753.175"] ;
35 -> 37 ;
38 [label="X[0] <= 0.039\nmse = 23066869624037.906\nsamples = 339\nvalue = 12747956.283"] ;
34 -> 38 ;
39 [label="mse = 37767231855000.0\nsamples = 8\nvalue = 23811720.0"] ;
38 -> 39 ;
40 [label="mse = 19681595812491.344\nsamples = 331\nvalue = 12480554.139"] ;
38 -> 40 ;
41 [label="X[7] <= 0.609\nmse = 5138103435434.506\nsamples = 779\nvalue = 3464522.157"] ;
33 -> 41 ;
42 [label="X[0] <= 0.09\nmse = 3938179774250.988\nsamples = 751\nvalue = 3289196.085"] ;
41 -> 42 ;
43 [label="mse = 10364430785705.5\nsamples = 98\nvalue = 5336508.367"] ;
42 -> 43 ;
44 [label="mse = 2250301211227.537\nsamples = 653\nvalue = 2981942.481"] ;
42 -> 44 ;
45 [label="X[8] <= 0.372\nmse = 14383834294752.555\nsamples = 28\nvalue = 8167017.857"] ;
41 -> 45 ;
46 [label="mse = 8213823610055.547\nsamples = 18\nvalue = 10410083.333"] ;
45 -> 46 ;
47 [label="mse = 131886165600.0\nsamples = 10\nvalue = 4129500.0"] ;
45 -> 47 ;
48 [label="X[4] <= 1.5\nmse = 28504862817662.188\nsamples = 607\nvalue = 17115385.008"] ;
32 -> 48 ;
49 [label="X[5] <= 82.5\nmse = 20942272773848.812\nsamples = 581\nvalue = 17729641.033"] ;
48 -> 49 ;
50 [label="X[10] <= 0.265\nmse = 16079234182887.438\nsamples = 473\nvalue = 16491976.364"] ;
49 -> 50 ;
51 [label="mse = 53565208134188.42\nsamples = 33\nvalue = 10463525.455"] ;
50 -> 51 ;
52 [label="mse = 10337694619747.188\nsamples = 440\nvalue = 16944110.182"] ;
50 -> 52 ;
53 [label="X[5] <= 101.5\nmse = 6149843802451.438\nsamples = 108\nvalue = 23150153.889"] ;
49 -> 53 ;
54 [label="mse = 3383716700478.188\nsamples = 90\nvalue = 22416574.667"] ;
53 -> 54 ;
55 [label="mse = 3836325054100.0\nsamples = 18\nvalue = 26818050.0"] ;
53 -> 55 ;
56 [label="X[10] <= 0.206\nmse = 658022490048.545\nsamples = 26\nvalue = 3389125.385"] ;
48 -> 56 ;
57 [label="mse = 0.0\nsamples = 5\nvalue = 4748760.0"] ;
56 -> 57 ;
58 [label="X[3] <= 18.5\nmse = 269753882563.266\nsamples = 21\nvalue = 3065402.857"] ;
56 -> 58 ;
59 [label="mse = 1976318865.374\nsamples = 19\nvalue = 2897453.684"] ;
58 -> 59 ;
60 [label="mse = 0.0\nsamples = 2\nvalue = 4660920.0"] ;
58 -> 60 ;
}